digraph Tree {
node [shape=box, style="filled", color="black", fontname="helvetica"] ;
edge [fontname="helvetica"] ;
0 [label="Fare <= 10.335\ngini = 0.469\nsamples = 394\nvalue = [234, 389]", fillcolor="#b0d8f5"] ;
1 [label="Sex <= 0.5\ngini = 0.278\nsamples = 152\nvalue = [42, 210]", fillcolor="#61b1ea"] ;
0 -> 1 [labeldistance=2.5, labelangle=45, headlabel="True"] ;
2 [label="Family_size <= 2.5\ngini = 0.225\nsamples = 125\nvalue = [27, 182]", fillcolor="#56ace9"] ;
1 -> 2 ;
3 [label="Pclass <= 2.5\ngini = 0.228\nsamples = 123\nvalue = [27, 179]", fillcolor="#57ace9"] ;
2 -> 3 ;
4 [label="gini = 0.0\nsamples = 7\nvalue = [0, 10]", fillcolor="#399de5"] ;
3 -> 4 ;
5 [label="Age <= 8.21\ngini = 0.238\nsamples = 116\nvalue = [27, 169]", fillcolor="#59ade9"] ;
3 -> 5 ;
6 [label="gini = 0.0\nsamples = 1\nvalue = [2, 0]", fillcolor="#e58139"] ;
5 -> 6 ;
7 [label="Age <= 26.5\ngini = 0.225\nsamples = 115\nvalue = [25, 169]", fillcolor="#56abe9"] ;
5 -> 7 ;
8 [label="Family_size <= 1.5\ngini = 0.158\nsamples = 78\nvalue = [11, 116]", fillcolor="#4ca6e7"] ;
7 -> 8 ;
9 [label="Age <= 16.5\ngini = 0.164\nsamples = 75\nvalue = [11, 111]", fillcolor="#4da7e8"] ;
8 -> 9 ;
10 [label="Fare <= 8.775\ngini = 0.408\nsamples = 3\nvalue = [2, 5]", fillcolor="#88c4ef"] ;
9 -> 10 ;
11 [label="Fare <= 7.913\ngini = 0.5\nsamples = 2\nvalue = [2, 2]", fillcolor="#ffffff"] ;
10 -> 11 ;
12 [label="gini = 0.0\nsamples = 1\nvalue = [0, 2]", fillcolor="#399de5"] ;
11 -> 12 ;
13 [label="gini = 0.0\nsamples = 1\nvalue = [2, 0]", fillcolor="#e58139"] ;
11 -> 13 ;
14 [label="gini = 0.0\nsamples = 1\nvalue = [0, 3]", fillcolor="#399de5"] ;
10 -> 14 ;
15 [label="Age <= 21.5\ngini = 0.144\nsamples = 72\nvalue = [9, 106]", fillcolor="#4aa5e7"] ;
9 -> 15 ;
16 [label="Fare <= 7.798\ngini = 0.202\nsamples = 23\nvalue = [4, 31]", fillcolor="#53aae8"] ;
15 -> 16 ;
17 [label="Fare <= 7.177\ngini = 0.32\nsamples = 9\nvalue = [3, 12]", fillcolor="#6ab6ec"] ;
16 -> 17 ;
18 [label="gini = 0.0\nsamples = 4\nvalue = [0, 9]", fillcolor="#399de5"] ;
17 -> 18 ;
19 [label="Fare <= 7.481\ngini = 0.5\nsamples = 5\nvalue = [3, 3]", fillcolor="#ffffff"] ;
17 -> 19 ;
20 [label="gini = 0.0\nsamples = 1\nvalue = [2, 0]", fillcolor="#e58139"] ;
19 -> 20 ;
21 [label="Age <= 19.5\ngini = 0.375\nsamples = 4\nvalue = [1, 3]", fillcolor="#7bbeee"] ;
19 -> 21 ;
22 [label="gini = 0.0\nsamples = 2\nvalue = [0, 2]", fillcolor="#399de5"] ;
21 -> 22 ;
23 [label="Fare <= 7.765\ngini = 0.5\nsamples = 2\nvalue = [1, 1]", fillcolor="#ffffff"] ;
21 -> 23 ;
24 [label="gini = 0.0\nsamples = 1\nvalue = [0, 1]", fillcolor="#399de5"] ;
23 -> 24 ;
25 [label="gini = 0.0\nsamples = 1\nvalue = [1, 0]", fillcolor="#e58139"] ;
23 -> 25 ;
26 [label="Age <= 18.5\ngini = 0.095\nsamples = 14\nvalue = [1, 19]", fillcolor="#43a2e6"] ;
16 -> 26 ;
27 [label="Fare <= 8.356\ngini = 0.32\nsamples = 4\nvalue = [1, 4]", fillcolor="#6ab6ec"] ;
26 -> 27 ;
28 [label="gini = 0.0\nsamples = 1\nvalue = [1, 0]", fillcolor="#e58139"] ;
27 -> 28 ;
29 [label="gini = 0.0\nsamples = 3\nvalue = [0, 4]", fillcolor="#399de5"] ;
27 -> 29 ;
30 [label="gini = 0.0\nsamples = 10\nvalue = [0, 15]", fillcolor="#399de5"] ;
26 -> 30 ;
31 [label="Age <= 23.0\ngini = 0.117\nsamples = 49\nvalue = [5, 75]", fillcolor="#46a4e7"] ;
15 -> 31 ;
32 [label="gini = 0.0\nsamples = 7\nvalue = [0, 11]", fillcolor="#399de5"] ;
31 -> 32 ;
33 [label="Fare <= 3.475\ngini = 0.134\nsamples = 42\nvalue = [5, 64]", fillcolor="#48a5e7"] ;
31 -> 33 ;
34 [label="gini = 0.0\nsamples = 1\nvalue = [1, 0]", fillcolor="#e58139"] ;
33 -> 34 ;
35 [label="Age <= 24.25\ngini = 0.111\nsamples = 41\nvalue = [4, 64]", fillcolor="#45a3e7"] ;
33 -> 35 ;
36 [label="Fare <= 7.319\ngini = 0.198\nsamples = 5\nvalue = [1, 8]", fillcolor="#52a9e8"] ;
35 -> 36 ;
37 [label="Fare <= 7.096\ngini = 0.444\nsamples = 2\nvalue = [1, 2]", fillcolor="#9ccef2"] ;
36 -> 37 ;
38 [label="gini = 0.0\nsamples = 1\nvalue = [0, 2]", fillcolor="#399de5"] ;
37 -> 38 ;
39 [label="gini = 0.0\nsamples = 1\nvalue = [1, 0]", fillcolor="#e58139"] ;
37 -> 39 ;
40 [label="gini = 0.0\nsamples = 3\nvalue = [0, 6]", fillcolor="#399de5"] ;
36 -> 40 ;
41 [label="Fare <= 8.081\ngini = 0.097\nsamples = 36\nvalue = [3, 56]", fillcolor="#44a2e6"] ;
35 -> 41 ;
42 [label="Age <= 25.5\ngini = 0.038\nsamples = 33\nvalue = [1, 51]", fillcolor="#3d9fe6"] ;
41 -> 42 ;
43 [label="Age <= 24.75\ngini = 0.041\nsamples = 30\nvalue = [1, 47]", fillcolor="#3d9fe6"] ;
42 -> 43 ;
44 [label="gini = 0.0\nsamples = 1\nvalue = [0, 1]", fillcolor="#399de5"] ;
43 -> 44 ;
45 [label="Fare <= 7.823\ngini = 0.042\nsamples = 29\nvalue = [1, 46]", fillcolor="#3d9fe6"] ;
43 -> 45 ;
46 [label="Fare <= 7.744\ngini = 0.091\nsamples = 14\nvalue = [1, 20]", fillcolor="#43a2e6"] ;
45 -> 46 ;
47 [label="gini = 0.0\nsamples = 10\nvalue = [0, 17]", fillcolor="#399de5"] ;
46 -> 47 ;
48 [label="gini = 0.375\nsamples = 4\nvalue = [1, 3]", fillcolor="#7bbeee"] ;
46 -> 48 ;
49 [label="gini = 0.0\nsamples = 15\nvalue = [0, 26]", fillcolor="#399de5"] ;
45 -> 49 ;
50 [label="gini = 0.0\nsamples = 3\nvalue = [0, 4]", fillcolor="#399de5"] ;
42 -> 50 ;
51 [label="Fare <= 8.285\ngini = 0.408\nsamples = 3\nvalue = [2, 5]", fillcolor="#88c4ef"] ;
41 -> 51 ;
52 [label="gini = 0.0\nsamples = 1\nvalue = [2, 0]", fillcolor="#e58139"] ;
51 -> 52 ;
53 [label="gini = 0.0\nsamples = 2\nvalue = [0, 5]", fillcolor="#399de5"] ;
51 -> 53 ;
54 [label="gini = 0.0\nsamples = 3\nvalue = [0, 5]", fillcolor="#399de5"] ;
8 -> 54 ;
55 [label="Age <= 32.5\ngini = 0.331\nsamples = 37\nvalue = [14, 53]", fillcolor="#6db7ec"] ;
7 -> 55 ;
56 [label="Fare <= 7.91\ngini = 0.47\nsamples = 17\nvalue = [14, 23]", fillcolor="#b2d9f5"] ;
55 -> 56 ;
57 [label="Fare <= 7.815\ngini = 0.245\nsamples = 11\nvalue = [3, 18]", fillcolor="#5aade9"] ;
56 -> 57 ;
58 [label="gini = 0.0\nsamples = 5\nvalue = [0, 9]", fillcolor="#399de5"] ;
57 -> 58 ;
59 [label="Age <= 31.0\ngini = 0.375\nsamples = 6\nvalue = [3, 9]", fillcolor="#7bbeee"] ;
57 -> 59 ;
60 [label="Age <= 28.5\ngini = 0.18\nsamples = 5\nvalue = [1, 9]", fillcolor="#4fa8e8"] ;
59 -> 60 ;
61 [label="gini = 0.0\nsamples = 2\nvalue = [0, 5]", fillcolor="#399de5"] ;
60 -> 61 ;
62 [label="Age <= 29.5\ngini = 0.32\nsamples = 3\nvalue = [1, 4]", fillcolor="#6ab6ec"] ;
60 -> 62 ;
63 [label="Fare <= 7.885\ngini = 0.5\nsamples = 2\nvalue = [1, 1]", fillcolor="#ffffff"] ;
62 -> 63 ;
64 [label="gini = 0.0\nsamples = 1\nvalue = [0, 1]", fillcolor="#399de5"] ;
63 -> 64 ;
65 [label="gini = 0.0\nsamples = 1\nvalue = [1, 0]", fillcolor="#e58139"] ;
63 -> 65 ;
66 [label="gini = 0.0\nsamples = 1\nvalue = [0, 3]", fillcolor="#399de5"] ;
62 -> 66 ;
67 [label="gini = 0.0\nsamples = 1\nvalue = [2, 0]", fillcolor="#e58139"] ;
59 -> 67 ;
68 [label="Age <= 30.75\ngini = 0.43\nsamples = 6\nvalue = [11, 5]", fillcolor="#f1ba93"] ;
56 -> 68 ;
69 [label="Age <= 27.5\ngini = 0.5\nsamples = 4\nvalue = [5, 5]", fillcolor="#ffffff"] ;
68 -> 69 ;
70 [label="gini = 0.0\nsamples = 1\nvalue = [2, 0]", fillcolor="#e58139"] ;
69 -> 70 ;
71 [label="Age <= 29.0\ngini = 0.469\nsamples = 3\nvalue = [3, 5]", fillcolor="#b0d8f5"] ;
69 -> 71 ;
72 [label="gini = 0.0\nsamples = 1\nvalue = [0, 3]", fillcolor="#399de5"] ;
71 -> 72 ;
73 [label="Fare <= 8.775\ngini = 0.48\nsamples = 2\nvalue = [3, 2]", fillcolor="#f6d5bd"] ;
71 -> 73 ;
74 [label="gini = 0.0\nsamples = 1\nvalue = [0, 2]", fillcolor="#399de5"] ;
73 -> 74 ;
75 [label="gini = 0.0\nsamples = 1\nvalue = [3, 0]", fillcolor="#e58139"] ;
73 -> 75 ;
76 [label="gini = 0.0\nsamples = 2\nvalue = [6, 0]", fillcolor="#e58139"] ;
68 -> 76 ;
77 [label="gini = 0.0\nsamples = 20\nvalue = [0, 30]", fillcolor="#399de5"] ;
55 -> 77 ;
78 [label="gini = 0.0\nsamples = 2\nvalue = [0, 3]", fillcolor="#399de5"] ;
2 -> 78 ;
79 [label="Fare <= 7.744\ngini = 0.454\nsamples = 27\nvalue = [15, 28]", fillcolor="#a3d2f3"] ;
1 -> 79 ;
80 [label="gini = 0.0\nsamples = 4\nvalue = [4, 0]", fillcolor="#e58139"] ;
79 -> 80 ;
81 [label="Fare <= 9.413\ngini = 0.405\nsamples = 23\nvalue = [11, 28]", fillcolor="#87c4ef"] ;
79 -> 81 ;
82 [label="Family_size <= 5.0\ngini = 0.458\nsamples = 19\nvalue = [11, 20]", fillcolor="#a6d3f3"] ;
81 -> 82 ;
83 [label="Fare <= 8.673\ngini = 0.444\nsamples = 18\nvalue = [10, 20]", fillcolor="#9ccef2"] ;
82 -> 83 ;
84 [label="Fare <= 7.875\ngini = 0.384\nsamples = 16\nvalue = [7, 20]", fillcolor="#7ebfee"] ;
83 -> 84 ;
85 [label="Fare <= 7.781\ngini = 0.484\nsamples = 11\nvalue = [7, 10]", fillcolor="#c4e2f7"] ;
84 -> 85 ;
86 [label="Age <= 21.25\ngini = 0.444\nsamples = 7\nvalue = [4, 8]", fillcolor="#9ccef2"] ;
85 -> 86 ;
87 [label="gini = 0.0\nsamples = 2\nvalue = [0, 4]", fillcolor="#399de5"] ;
86 -> 87 ;
88 [label="Family_size <= 2.0\ngini = 0.5\nsamples = 5\nvalue = [4, 4]", fillcolor="#ffffff"] ;
86 -> 88 ;
89 [label="Age <= 26.0\ngini = 0.32\nsamples = 4\nvalue = [4, 1]", fillcolor="#eca06a"] ;
88 -> 89 ;
90 [label="gini = 0.0\nsamples = 3\nvalue = [4, 0]", fillcolor="#e58139"] ;
89 -> 90 ;
91 [label="gini = 0.0\nsamples = 1\nvalue = [0, 1]", fillcolor="#399de5"] ;
89 -> 91 ;
92 [label="gini = 0.0\nsamples = 1\nvalue = [0, 3]", fillcolor="#399de5"] ;
88 -> 92 ;
93 [label="Age <= 17.75\ngini = 0.48\nsamples = 4\nvalue = [3, 2]", fillcolor="#f6d5bd"] ;
85 -> 93 ;
94 [label="gini = 0.0\nsamples = 1\nvalue = [0, 1]", fillcolor="#399de5"] ;
93 -> 94 ;
95 [label="Fare <= 7.821\ngini = 0.375\nsamples = 3\nvalue = [3, 1]", fillcolor="#eeab7b"] ;
93 -> 95 ;
96 [label="gini = 0.0\nsamples = 1\nvalue = [2, 0]", fillcolor="#e58139"] ;
95 -> 96 ;
97 [label="Age <= 28.5\ngini = 0.5\nsamples = 2\nvalue = [1, 1]", fillcolor="#ffffff"] ;
95 -> 97 ;
98 [label="gini = 0.0\nsamples = 1\nvalue = [1, 0]", fillcolor="#e58139"] ;
97 -> 98 ;
99 [label="gini = 0.0\nsamples = 1\nvalue = [0, 1]", fillcolor="#399de5"] ;
97 -> 99 ;
100 [label="gini = 0.0\nsamples = 5\nvalue = [0, 10]", fillcolor="#399de5"] ;
84 -> 100 ;
101 [label="gini = 0.0\nsamples = 2\nvalue = [3, 0]", fillcolor="#e58139"] ;
83 -> 101 ;
102 [label="gini = 0.0\nsamples = 1\nvalue = [1, 0]", fillcolor="#e58139"] ;
82 -> 102 ;
103 [label="gini = 0.0\nsamples = 4\nvalue = [0, 8]", fillcolor="#399de5"] ;
81 -> 103 ;
104 [label="Family_size <= 4.5\ngini = 0.499\nsamples = 242\nvalue = [192, 179]", fillcolor="#fdf6f2"] ;
0 -> 104 [labeldistance=2.5, labelangle=-45, headlabel="False"] ;
105 [label="Sex <= 0.5\ngini = 0.49\nsamples = 217\nvalue = [188, 142]", fillcolor="#f9e0cf"] ;
104 -> 105 ;
106 [label="Age <= 14.0\ngini = 0.443\nsamples = 125\nvalue = [64, 129]", fillcolor="#9bcef2"] ;
105 -> 106 ;
107 [label="gini = 0.0\nsamples = 11\nvalue = [20, 0]", fillcolor="#e58139"] ;
106 -> 107 ;
108 [label="Fare <= 26.269\ngini = 0.379\nsamples = 114\nvalue = [44, 129]", fillcolor="#7dbeee"] ;
106 -> 108 ;
109 [label="Fare <= 19.377\ngini = 0.182\nsamples = 57\nvalue = [8, 71]", fillcolor="#4fa8e8"] ;
108 -> 109 ;
110 [label="Family_size <= 2.5\ngini = 0.252\nsamples = 39\nvalue = [8, 46]", fillcolor="#5baeea"] ;
109 -> 110 ;
111 [label="Age <= 59.5\ngini = 0.208\nsamples = 37\nvalue = [6, 45]", fillcolor="#53aae8"] ;
110 -> 111 ;
112 [label="Family_size <= 1.5\ngini = 0.18\nsamples = 36\nvalue = [5, 45]", fillcolor="#4fa8e8"] ;
111 -> 112 ;
113 [label="Pclass <= 2.5\ngini = 0.201\nsamples = 30\nvalue = [5, 39]", fillcolor="#52aae8"] ;
112 -> 113 ;
114 [label="Age <= 31.5\ngini = 0.136\nsamples = 28\nvalue = [3, 38]", fillcolor="#49a5e7"] ;
113 -> 114 ;
115 [label="Age <= 30.5\ngini = 0.236\nsamples = 14\nvalue = [3, 19]", fillcolor="#58ace9"] ;
114 -> 115 ;
116 [label="Age <= 21.0\ngini = 0.095\nsamples = 13\nvalue = [1, 19]", fillcolor="#43a2e6"] ;
115 -> 116 ;
117 [label="Fare <= 11.0\ngini = 0.32\nsamples = 3\nvalue = [1, 4]", fillcolor="#6ab6ec"] ;
116 -> 117 ;
118 [label="gini = 0.0\nsamples = 1\nvalue = [1, 0]", fillcolor="#e58139"] ;
117 -> 118 ;
119 [label="gini = 0.0\nsamples = 2\nvalue = [0, 4]", fillcolor="#399de5"] ;
117 -> 119 ;
120 [label="gini = 0.0\nsamples = 10\nvalue = [0, 15]", fillcolor="#399de5"] ;
116 -> 120 ;
121 [label="gini = 0.0\nsamples = 1\nvalue = [2, 0]", fillcolor="#e58139"] ;
115 -> 121 ;
122 [label="gini = 0.0\nsamples = 14\nvalue = [0, 19]", fillcolor="#399de5"] ;
114 -> 122 ;
123 [label="Fare <= 17.444\ngini = 0.444\nsamples = 2\nvalue = [2, 1]", fillcolor="#f2c09c"] ;
113 -> 123 ;
124 [label="gini = 0.0\nsamples = 1\nvalue = [0, 1]", fillcolor="#399de5"] ;
123 -> 124 ;
125 [label="gini = 0.0\nsamples = 1\nvalue = [2, 0]", fillcolor="#e58139"] ;
123 -> 125 ;
126 [label="gini = 0.0\nsamples = 6\nvalue = [0, 6]", fillcolor="#399de5"] ;
112 -> 126 ;
127 [label="gini = 0.0\nsamples = 1\nvalue = [1, 0]", fillcolor="#e58139"] ;
111 -> 127 ;
128 [label="Age <= 27.0\ngini = 0.444\nsamples = 2\nvalue = [2, 1]", fillcolor="#f2c09c"] ;
110 -> 128 ;
129 [label="gini = 0.0\nsamples = 1\nvalue = [2, 0]", fillcolor="#e58139"] ;
128 -> 129 ;
130 [label="gini = 0.0\nsamples = 1\nvalue = [0, 1]", fillcolor="#399de5"] ;
128 -> 130 ;
131 [label="gini = 0.0\nsamples = 18\nvalue = [0, 25]", fillcolor="#399de5"] ;
109 -> 131 ;
132 [label="Pclass <= 1.5\ngini = 0.473\nsamples = 57\nvalue = [36, 58]", fillcolor="#b4daf5"] ;
108 -> 132 ;
133 [label="Fare <= 26.469\ngini = 0.488\nsamples = 48\nvalue = [33, 45]", fillcolor="#cae5f8"] ;
132 -> 133 ;
134 [label="gini = 0.0\nsamples = 2\nvalue = [4, 0]", fillcolor="#e58139"] ;
133 -> 134 ;
135 [label="Family_size <= 1.5\ngini = 0.477\nsamples = 46\nvalue = [29, 45]", fillcolor="#b9dcf6"] ;
133 -> 135 ;
136 [label="Fare <= 37.812\ngini = 0.482\nsamples = 23\nvalue = [15, 22]", fillcolor="#c0e0f7"] ;
135 -> 136 ;
137 [label="Fare <= 28.875\ngini = 0.5\nsamples = 19\nvalue = [15, 15]", fillcolor="#ffffff"] ;
136 -> 137 ;
138 [label="Age <= 52.0\ngini = 0.408\nsamples = 9\nvalue = [4, 10]", fillcolor="#88c4ef"] ;
137 -> 138 ;
139 [label="Fare <= 27.15\ngini = 0.494\nsamples = 5\nvalue = [4, 5]", fillcolor="#d7ebfa"] ;
138 -> 139 ;
140 [label="Age <= 46.5\ngini = 0.5\nsamples = 4\nvalue = [4, 4]", fillcolor="#ffffff"] ;
139 -> 140 ;
141 [label="Age <= 42.5\ngini = 0.32\nsamples = 3\nvalue = [1, 4]", fillcolor="#6ab6ec"] ;
140 -> 141 ;
142 [label="gini = 0.444\nsamples = 2\nvalue = [1, 2]", fillcolor="#9ccef2"] ;
141 -> 142 ;
143 [label="gini = 0.0\nsamples = 1\nvalue = [0, 2]", fillcolor="#399de5"] ;
141 -> 143 ;
144 [label="gini = 0.0\nsamples = 1\nvalue = [3, 0]", fillcolor="#e58139"] ;
140 -> 144 ;
145 [label="gini = 0.0\nsamples = 1\nvalue = [0, 1]", fillcolor="#399de5"] ;
139 -> 145 ;
146 [label="gini = 0.0\nsamples = 4\nvalue = [0, 5]", fillcolor="#399de5"] ;
138 -> 146 ;
147 [label="Fare <= 33.25\ngini = 0.43\nsamples = 10\nvalue = [11, 5]", fillcolor="#f1ba93"] ;
137 -> 147 ;
148 [label="Age <= 54.0\ngini = 0.198\nsamples = 6\nvalue = [8, 1]", fillcolor="#e89152"] ;
147 -> 148 ;
149 [label="gini = 0.0\nsamples = 4\nvalue = [7, 0]", fillcolor="#e58139"] ;
148 -> 149 ;
150 [label="Age <= 68.0\ngini = 0.5\nsamples = 2\nvalue = [1, 1]", fillcolor="#ffffff"] ;
148 -> 150 ;
151 [label="gini = 0.0\nsamples = 1\nvalue = [0, 1]", fillcolor="#399de5"] ;
150 -> 151 ;
152 [label="gini = 0.0\nsamples = 1\nvalue = [1, 0]", fillcolor="#e58139"] ;
150 -> 152 ;
153 [label="Age <= 42.5\ngini = 0.49\nsamples = 4\nvalue = [3, 4]", fillcolor="#cee6f8"] ;
147 -> 153 ;
154 [label="gini = 0.0\nsamples = 2\nvalue = [2, 0]", fillcolor="#e58139"] ;
153 -> 154 ;
155 [label="Age <= 50.5\ngini = 0.32\nsamples = 2\nvalue = [1, 4]", fillcolor="#6ab6ec"] ;
153 -> 155 ;
156 [label="gini = 0.0\nsamples = 1\nvalue = [0, 4]", fillcolor="#399de5"] ;
155 -> 156 ;
157 [label="gini = 0.0\nsamples = 1\nvalue = [1, 0]", fillcolor="#e58139"] ;
155 -> 157 ;
158 [label="gini = 0.0\nsamples = 4\nvalue = [0, 7]", fillcolor="#399de5"] ;
136 -> 158 ;
159 [label="Age <= 22.0\ngini = 0.47\nsamples = 23\nvalue = [14, 23]", fillcolor="#b2d9f5"] ;
135 -> 159 ;
160 [label="gini = 0.0\nsamples = 2\nvalue = [0, 4]", fillcolor="#399de5"] ;
159 -> 160 ;
161 [label="Fare <= 52.277\ngini = 0.489\nsamples = 21\nvalue = [14, 19]", fillcolor="#cbe5f8"] ;
159 -> 161 ;
162 [label="gini = 0.0\nsamples = 2\nvalue = [0, 4]", fillcolor="#399de5"] ;
161 -> 162 ;
163 [label="Fare <= 59.19\ngini = 0.499\nsamples = 19\nvalue = [14, 15]", fillcolor="#f2f8fd"] ;
161 -> 163 ;
164 [label="Age <= 34.0\ngini = 0.375\nsamples = 4\nvalue = [6, 2]", fillcolor="#eeab7b"] ;
163 -> 164 ;
165 [label="gini = 0.0\nsamples = 2\nvalue = [4, 0]", fillcolor="#e58139"] ;
164 -> 165 ;
166 [label="Family_size <= 2.5\ngini = 0.5\nsamples = 2\nvalue = [2, 2]", fillcolor="#ffffff"] ;
164 -> 166 ;
167 [label="gini = 0.0\nsamples = 1\nvalue = [0, 2]", fillcolor="#399de5"] ;
166 -> 167 ;
168 [label="gini = 0.0\nsamples = 1\nvalue = [2, 0]", fillcolor="#e58139"] ;
166 -> 168 ;
169 [label="Fare <= 143.556\ngini = 0.472\nsamples = 15\nvalue = [8, 13]", fillcolor="#b3d9f5"] ;
163 -> 169 ;
170 [label="Age <= 50.5\ngini = 0.494\nsamples = 13\nvalue = [8, 10]", fillcolor="#d7ebfa"] ;
169 -> 170 ;
171 [label="Fare <= 64.979\ngini = 0.444\nsamples = 7\nvalue = [6, 3]", fillcolor="#f2c09c"] ;
170 -> 171 ;
172 [label="gini = 0.0\nsamples = 1\nvalue = [2, 0]", fillcolor="#e58139"] ;
171 -> 172 ;
173 [label="Age <= 46.5\ngini = 0.49\nsamples = 6\nvalue = [4, 3]", fillcolor="#f8e0ce"] ;
171 -> 173 ;
174 [label="Fare <= 86.085\ngini = 0.375\nsamples = 4\nvalue = [1, 3]", fillcolor="#7bbeee"] ;
173 -> 174 ;
175 [label="gini = 0.0\nsamples = 2\nvalue = [0, 2]", fillcolor="#399de5"] ;
174 -> 175 ;
176 [label="Family_size <= 2.5\ngini = 0.5\nsamples = 2\nvalue = [1, 1]", fillcolor="#ffffff"] ;
174 -> 176 ;
177 [label="gini = 0.0\nsamples = 1\nvalue = [1, 0]", fillcolor="#e58139"] ;
176 -> 177 ;
178 [label="gini = 0.0\nsamples = 1\nvalue = [0, 1]", fillcolor="#399de5"] ;
176 -> 178 ;
179 [label="gini = 0.0\nsamples = 2\nvalue = [3, 0]", fillcolor="#e58139"] ;
173 -> 179 ;
180 [label="Fare <= 75.1\ngini = 0.346\nsamples = 6\nvalue = [2, 7]", fillcolor="#72b9ec"] ;
170 -> 180 ;
181 [label="gini = 0.0\nsamples = 3\nvalue = [0, 4]", fillcolor="#399de5"] ;
180 -> 181 ;
182 [label="Age <= 59.0\ngini = 0.48\nsamples = 3\nvalue = [2, 3]", fillcolor="#bddef6"] ;
180 -> 182 ;
183 [label="gini = 0.0\nsamples = 2\nvalue = [0, 3]", fillcolor="#399de5"] ;
182 -> 183 ;
184 [label="gini = 0.0\nsamples = 1\nvalue = [2, 0]", fillcolor="#e58139"] ;
182 -> 184 ;
185 [label="gini = 0.0\nsamples = 2\nvalue = [0, 3]", fillcolor="#399de5"] ;
169 -> 185 ;
186 [label="Family_size <= 1.5\ngini = 0.305\nsamples = 9\nvalue = [3, 13]", fillcolor="#67b4eb"] ;
132 -> 186 ;
187 [label="Age <= 25.5\ngini = 0.5\nsamples = 3\nvalue = [3, 3]", fillcolor="#ffffff"] ;
186 -> 187 ;
188 [label="gini = 0.0\nsamples = 1\nvalue = [0, 3]", fillcolor="#399de5"] ;
187 -> 188 ;
189 [label="gini = 0.0\nsamples = 2\nvalue = [3, 0]", fillcolor="#e58139"] ;
187 -> 189 ;
190 [label="gini = 0.0\nsamples = 6\nvalue = [0, 10]", fillcolor="#399de5"] ;
186 -> 190 ;
191 [label="Fare <= 24.69\ngini = 0.172\nsamples = 92\nvalue = [124, 13]", fillcolor="#e88e4e"] ;
105 -> 191 ;
192 [label="Age <= 22.5\ngini = 0.375\nsamples = 35\nvalue = [36, 12]", fillcolor="#eeab7b"] ;
191 -> 192 ;
193 [label="Age <= 14.25\ngini = 0.499\nsamples = 18\nvalue = [12, 11]", fillcolor="#fdf5ef"] ;
192 -> 193 ;
194 [label="gini = 0.0\nsamples = 6\nvalue = [7, 0]", fillcolor="#e58139"] ;
193 -> 194 ;
195 [label="Pclass <= 2.5\ngini = 0.43\nsamples = 12\nvalue = [5, 11]", fillcolor="#93caf1"] ;
193 -> 195 ;
196 [label="gini = 0.0\nsamples = 2\nvalue = [2, 0]", fillcolor="#e58139"] ;
195 -> 196 ;
197 [label="Family_size <= 1.5\ngini = 0.337\nsamples = 10\nvalue = [3, 11]", fillcolor="#6fb8ec"] ;
195 -> 197 ;
198 [label="gini = 0.0\nsamples = 2\nvalue = [0, 4]", fillcolor="#399de5"] ;
197 -> 198 ;
199 [label="Fare <= 16.95\ngini = 0.42\nsamples = 8\nvalue = [3, 7]", fillcolor="#8ec7f0"] ;
197 -> 199 ;
200 [label="Age <= 14.75\ngini = 0.5\nsamples = 4\nvalue = [2, 2]", fillcolor="#ffffff"] ;
199 -> 200 ;
201 [label="gini = 0.0\nsamples = 1\nvalue = [0, 1]", fillcolor="#399de5"] ;
200 -> 201 ;
202 [label="Age <= 18.25\ngini = 0.444\nsamples = 3\nvalue = [2, 1]", fillcolor="#f2c09c"] ;
200 -> 202 ;
203 [label="gini = 0.0\nsamples = 1\nvalue = [1, 0]", fillcolor="#e58139"] ;
202 -> 203 ;
204 [label="Fare <= 15.277\ngini = 0.5\nsamples = 2\nvalue = [1, 1]", fillcolor="#ffffff"] ;
202 -> 204 ;
205 [label="gini = 0.0\nsamples = 1\nvalue = [0, 1]", fillcolor="#399de5"] ;
204 -> 205 ;
206 [label="gini = 0.0\nsamples = 1\nvalue = [1, 0]", fillcolor="#e58139"] ;
204 -> 206 ;
207 [label="Fare <= 20.179\ngini = 0.278\nsamples = 4\nvalue = [1, 5]", fillcolor="#61b1ea"] ;
199 -> 207 ;
208 [label="gini = 0.0\nsamples = 2\nvalue = [0, 4]", fillcolor="#399de5"] ;
207 -> 208 ;
209 [label="Family_size <= 3.5\ngini = 0.5\nsamples = 2\nvalue = [1, 1]", fillcolor="#ffffff"] ;
207 -> 209 ;
210 [label="gini = 0.0\nsamples = 1\nvalue = [1, 0]", fillcolor="#e58139"] ;
209 -> 210 ;
211 [label="gini = 0.0\nsamples = 1\nvalue = [0, 1]", fillcolor="#399de5"] ;
209 -> 211 ;
212 [label="Fare <= 14.146\ngini = 0.077\nsamples = 17\nvalue = [24, 1]", fillcolor="#e68641"] ;
192 -> 212 ;
213 [label="gini = 0.0\nsamples = 13\nvalue = [21, 0]", fillcolor="#e58139"] ;
212 -> 213 ;
214 [label="Age <= 40.0\ngini = 0.375\nsamples = 4\nvalue = [3, 1]", fillcolor="#eeab7b"] ;
212 -> 214 ;
215 [label="gini = 0.0\nsamples = 3\nvalue = [3, 0]", fillcolor="#e58139"] ;
214 -> 215 ;
216 [label="gini = 0.0\nsamples = 1\nvalue = [0, 1]", fillcolor="#399de5"] ;
214 -> 216 ;
217 [label="Age <= 49.5\ngini = 0.022\nsamples = 57\nvalue = [88, 1]", fillcolor="#e5823b"] ;
191 -> 217 ;
218 [label="gini = 0.0\nsamples = 51\nvalue = [76, 0]", fillcolor="#e58139"] ;
217 -> 218 ;
219 [label="Age <= 50.5\ngini = 0.142\nsamples = 6\nvalue = [12, 1]", fillcolor="#e78c49"] ;
217 -> 219 ;
220 [label="gini = 0.0\nsamples = 1\nvalue = [0, 1]", fillcolor="#399de5"] ;
219 -> 220 ;
221 [label="gini = 0.0\nsamples = 5\nvalue = [12, 0]", fillcolor="#e58139"] ;
219 -> 221 ;
222 [label="Pclass <= 2.5\ngini = 0.176\nsamples = 25\nvalue = [4, 37]", fillcolor="#4ea8e8"] ;
104 -> 222 ;
223 [label="gini = 0.0\nsamples = 3\nvalue = [3, 0]", fillcolor="#e58139"] ;
222 -> 223 ;
224 [label="Fare <= 31.331\ngini = 0.051\nsamples = 22\nvalue = [1, 37]", fillcolor="#3ea0e6"] ;
222 -> 224 ;
225 [label="gini = 0.0\nsamples = 10\nvalue = [0, 19]", fillcolor="#399de5"] ;
224 -> 225 ;
226 [label="Age <= 7.0\ngini = 0.1\nsamples = 12\nvalue = [1, 18]", fillcolor="#44a2e6"] ;
224 -> 226 ;
227 [label="Age <= 3.0\ngini = 0.444\nsamples = 2\nvalue = [1, 2]", fillcolor="#9ccef2"] ;
226 -> 227 ;
228 [label="gini = 0.0\nsamples = 1\nvalue = [0, 2]", fillcolor="#399de5"] ;
227 -> 228 ;
229 [label="gini = 0.0\nsamples = 1\nvalue = [1, 0]", fillcolor="#e58139"] ;
227 -> 229 ;
230 [label="gini = 0.0\nsamples = 10\nvalue = [0, 16]", fillcolor="#399de5"] ;
226 -> 230 ;
}